svm_type c_svc
kernel_type rbf
gamma 0.5
nr_class 2
total_sv 283
rho -0.274715
label 1 -1
nr_sv 147 136
SV
0.3 2:2.2213966 3:1.0579919 
0.2247940775461031 27:1.0222764 2:1.1106983 
0.0006972253000692655 2:2.2213966 
0.3 6:2.881384 27:1.0222764 
0.3 27:1.0222764 2:1.1106983 
0.251447072959842 6:2.881384 27:1.0222764 
0.3 64:0.87778412 
0.3 71:1.132238 
0.3 71:2.264476 
0.2112671232312631 14:1.0457575 27:1.0222764 
0.3 27:1.0222764 
0.3 117:1.4117283 
0.3 71:1.132238 3:1.0579919 
0.3 155:1.3716111 
0.3 68:1.0054629 3:1.0579919 
0.3 117:1.4117283 
0.3 9:1.0054629 155:1.3716111 
0.3 144:1.0705811 3:1.0579919 
0.3 71:2.264476 155:1.3716111 
0.3 68:1.0054629 9:1.0054629 
0.1729119772182075 14:1.0457575 9:1.0054629 117:1.4117283 
0.3 155:1.3716111 
0.2718467688397656 14:1.0457575 9:1.0054629 
0.3 86:1.4117283 
0.3 144:2.1411621 3:2.1159839 
0.3 68:1.0054629 214:1.2498775 
0.3 117:1.4117283 51:1.0770152 27:1.0222764 
0.3 9:1.0054629 155:1.3716111 
0.3 27:2.0445528 14:3.1372725 
0.3 117:1.4117283 14:1.0457575 
0.3 9:1.0054629 27:1.0222764 
0.3 27:1.0222764 
0.137182795828107 68:1.0054629 
0.3 144:1.0705811 14:1.0457575 
0.3 51:1.0770152 9:2.0109258 
0.05897856989607989 27:1.0222764 51:2.1540304 
0.3 9:1.0054629 155:1.3716111 
0.3 71:1.132238 
0.03849503249157505 51:1.0770152 9:1.0054629 
0.1101540525640587 3:1.0579919 
0.3 68:1.0054629 
0.3 71:1.132238 
0.3 14:1.0457575 6:1.440692 64:0.87778412 
0.3 9:1.0054629 155:1.3716111 
0.03961946502718333 27:1.0222764 14:1.0457575 
0.3 51:1.0770152 64:0.87778412 117:1.4117283 
0.3 68:1.0054629 
0.2867010259372152 117:1.4117283 51:1.0770152 
0.3 27:1.0222764 
0.3 2:1.1106983 117:1.4117283 3:2.1159839 
0.3 27:1.0222764 9:1.0054629 14:1.0457575 
0.3 27:1.0222764 51:2.1540304 64:0.87778412 
0.3 64:0.87778412 
0.3 68:1.0054629 
0.3 2:1.1106983 64:0.87778412 
0.3 14:1.0457575 3:2.1159839 
0.3 117:1.4117283 
0.3 9:1.0054629 2:1.1106983 
0.1380237575183163 27:1.0222764 51:1.0770152 
0.3 68:1.0054629 
0.1947365010818118 9:2.0109258 51:1.0770152 
0.3 68:1.0054629 
0.3 68:1.0054629 
0.0759536164968188 117:1.4117283 
0.2281105746515248 9:1.0054629 27:1.0222764 
0.3 27:1.0222764 14:1.0457575 
0.3 14:1.0457575 27:1.0222764 
0.29135937811316 3:1.0579919 27:1.0222764 117:1.4117283 
0.3 27:1.0222764 14:1.0457575 
0.3 27:1.0222764 14:1.0457575 9:1.0054629 
0.3 6:1.440692 155:1.3716111 
0.09072007137595667 3:2.1159839 
0.3 155:1.3716111 51:1.0770152 14:1.0457575 
0.3 14:1.0457575 9:1.0054629 155:1.3716111 
0.3 3:1.0579919 
0.3 51:1.0770152 6:1.440692 64:0.87778412 
0.3 71:1.132238 155:1.3716111 
0.3 3:1.0579919 
0.3 144:1.0705811 64:0.87778412 
0.3 27:1.0222764 
0.3 71:1.132238 
0.3 3:1.0579919 27:1.0222764 
0.3 68:1.0054629 
0.2984113375002426 27:1.0222764 14:2.091515 68:1.0054629 
0.2900338919543412 27:1.0222764 2:1.1106983 
0.3 27:1.0222764 
0.3 2:1.1106983 144:1.0705811 
0.3 27:1.0222764 2:1.1106983 3:1.0579919 
0.3 27:1.0222764 
0.3 3:1.0579919 2:1.1106983 
0.3 27:1.0222764 3:1.0579919 117:1.4117283 
0.009378906310207302 2:1.1106983 6:1.440692 
0.2165008205484449 117:1.4117283 2:1.1106983 
0.08501841623224159 117:1.4117283 2:1.1106983 27:1.0222764 
0.2887275241862871 2:1.1106983 14:2.091515 
0.1347954126229848 14:1.0457575 117:1.4117283 2:1.1106983 
0.3 68:1.0054629 
0.3 27:1.0222764 2:1.1106983 6:1.440692 
0.2117165714107439 117:1.4117283 2:1.1106983 27:1.0222764 
0.3 2:1.1106983 
0.3 2:1.1106983 
0.3 64:0.87778412 3:1.0579919 
0.3 68:1.0054629 
0.3 68:1.0054629 
0.05243040091332325 51:1.0770152 
0.3 71:1.132238 
0.2946918065724041 117:1.4117283 27:1.0222764 
0.3 14:1.0457575 155:1.3716111 
0.3 68:1.0054629 
0.3 51:1.0770152 
0.3 117:1.4117283 9:1.0054629 
0.3 3:1.0579919 
0.152287465393213 14:1.0457575 
0.3 155:1.3716111 
0.3 68:1.0054629 
0.3 51:1.0770152 
0.3 64:0.87778412 
0.3 144:1.0705811 64:0.87778412 
0.2823359305664697 27:1.0222764 51:1.0770152 9:1.0054629 
0.08504937434057851 9:1.0054629 
0.3 9:1.0054629 
0.3 14:1.0457575 
0.3 9:1.0054629 
0.3 51:1.0770152 
0.3 71:1.132238 
0.3 71:1.132238 14:1.0457575 3:1.0579919 9:1.0054629 
0.3 51:1.0770152 
0.1895350452876921 51:1.0770152 3:1.0579919 
0.3 68:1.0054629 
0.3 51:1.0770152 
0.3 51:1.0770152 
0.3 144:1.0705811 214:1.2498775 
0.3 68:1.0054629 
0.3 68:1.0054629 155:1.3716111 9:1.0054629 
0.3 68:1.0054629 
0.2459922872674808 6:1.440692 
0.3 6:1.440692 
0.3 51:1.0770152 71:1.132238 
0.1477513541906738 9:2.0109258 68:1.0054629 
0.3 2:1.1106983 27:1.0222764 
0.2792328702128475 6:1.440692 
0.2872454040878771 2:1.1106983 
0.2337734933357909 14:1.0457575 3:1.0579919 
0.3 3:1.0579919 
0.272338096364566 51:1.0770152 3:1.0579919 
0.2792348455027865 68:1.0054629 
0.3 14:1.0457575 
-0.3 27:1.0222764 
-0.3 51:1.0770152 
-0.3 68:2.0109258 
-0.3 68:2.0109258 
-0.3 9:1.0054629 
-0.3 71:1.132238 
-0.3 71:2.264476 27:1.0222764 
-0.3 68:1.0054629 
-0.3 155:1.3716111 71:1.132238 145:1.0109954 
-0.3 144:1.0705811 
-0.3 71:1.132238 
-0.3 273:1.0901766 155:1.3716111 
-0.3 71:1.132238 
-0.3 71:1.132238 
-0.3 27:1.0222764 117:1.4117283 
-0.3 51:1.0770152 
-0.3 3:1.0579919 
-0.3 71:1.132238 9:1.0054629 
-0.3 51:1.0770152 
-0.3 51:1.0770152 
-0.3 27:1.0222764 
-0.3 144:1.0705811 
-0.3 27:1.0222764 
-0.3 27:1.0222764 
-0.3 68:2.0109258 86:1.4117283 
-0.1781816207359667 144:1.0705811 145:1.0109954 
-0.3 86:1.4117283 145:1.0109954 71:1.132238 
-0.3 27:1.0222764 
-0.3 155:1.3716111 9:1.0054629 
-0.3 68:1.0054629 
-0.3 145:1.0109954 9:1.0054629 
-0.3 27:1.0222764 
-0.3 27:1.0222764 
-0.3 214:1.2498775 
-0.3 145:1.0109954 71:1.132238 
-0.3 155:1.3716111 
-0.3 145:1.0109954 27:1.0222764 
-0.3 273:1.0901766 27:1.0222764 
-0.3 27:1.0222764 
-0.2410612471657786 145:1.0109954 27:1.0222764 
-0.04874712703608506 145:1.0109954 68:1.0054629 
-0.3 145:1.0109954 273:1.0901766 71:1.132238 155:1.3716111 
-0.2177387040872945 145:1.0109954 71:1.132238 
-0.1957512653143564 71:1.132238 68:1.0054629 
-0.3 71:2.264476 145:1.0109954 155:1.3716111 
-0.3 155:1.3716111 
-0.3 68:1.0054629 86:1.4117283 71:1.132238 
-0.3 71:1.132238 
-0.3 68:1.0054629 
-0.3 155:1.3716111 
-0.3 273:1.0901766 144:1.0705811 
-0.3 273:1.0901766 145:1.0109954 71:1.132238 
-0.3 71:1.132238 
-0.3 71:1.132238 
-0.3 64:1.7555682 68:2.0109258 
-0.3 273:1.0901766 2:1.1106983 
-0.3 64:1.7555682 68:2.0109258 
-0.3 155:1.3716111 
-0.3 14:1.0457575 
-0.3 117:1.4117283 
-0.3 51:1.0770152 155:1.3716111 
-0.3 6:1.440692 273:1.0901766 27:1.0222764 
-0.3 71:1.132238 
-0.3 71:1.132238 9:1.0054629 86:1.4117283 117:1.4117283 
-0.3 51:1.0770152 144:1.0705811 155:1.3716111 
-0.3 71:1.132238 9:1.0054629 
-0.3 145:2.0219908 144:1.0705811 
-0.3 27:1.0222764 
-0.3 68:1.0054629 144:1.0705811 273:1.0901766 27:1.0222764 
-0.3 86:1.4117283 27:1.0222764 144:1.0705811 
-0.3 71:2.264476 273:1.0901766 
-0.3 145:1.0109954 86:1.4117283 
-0.3 27:1.0222764 9:1.0054629 
-0.3 155:1.3716111 
-0.3 155:1.3716111 
-0.3 144:1.0705811 68:1.0054629 
-0.3 117:1.4117283 
-0.3 155:1.3716111 145:1.0109954 
-0.3 68:1.0054629 
-0.3 64:0.87778412 68:1.0054629 
-0.3 51:1.0770152 144:1.0705811 155:1.3716111 
-0.3 68:1.0054629 
-0.3 144:1.0705811 86:1.4117283 
-0.2109802036209104 145:1.0109954 144:1.0705811 
-0.3 68:1.0054629 
-0.3 68:1.0054629 145:1.0109954 
-0.2621199094719097 71:1.132238 86:1.4117283 
-0.07872782392915134 145:2.0219908 
-0.3 27:1.0222764 
-0.2287314384327118 273:1.0901766 145:1.0109954 
-0.3 3:1.0579919 86:1.4117283 71:1.132238 
-0.2465928655601731 71:1.132238 
-0.3 145:1.0109954 68:1.0054629 144:1.0705811 71:1.132238 
-0.3 27:1.0222764 
-0.3 155:1.3716111 
-0.3 14:1.0457575 155:1.3716111 
-0.3 68:1.0054629 
-0.3 86:1.4117283 27:1.0222764 
-0.2418436991046865 64:0.87778412 214:1.2498775 273:1.0901766 144:1.0705811 
-0.2928627330120487 86:1.4117283 
-0.3 64:0.87778412 214:1.2498775 273:1.0901766 144:1.0705811 
-0.2992708191966931 64:0.87778412 214:1.2498775 273:1.0901766 144:1.0705811 
-0.3 64:1.7555682 68:2.0109258 
-0.2168708842104893 64:0.87778412 
-0.3 64:0.87778412 
-0.3 64:0.87778412 
-0.3 64:0.87778412 
-0.3 64:0.87778412 
-0.3 64:0.87778412 
-0.3 27:1.0222764 
-0.3 3:1.0579919 86:1.4117283 71:1.132238 
-0.3 145:1.0109954 68:1.0054629 144:1.0705811 71:1.132238 
-0.3 145:1.0109954 68:1.0054629 
-0.3 117:1.4117283 
-0.3 68:1.0054629 
-0.3 68:1.0054629 273:1.0901766 71:1.132238 27:1.0222764 
-0.3 71:2.264476 
-0.3 71:1.132238 68:1.0054629 
-0.3 2:1.1106983 
-0.3 155:1.3716111 
-0.3 117:1.4117283 
-0.3 273:1.0901766 68:1.0054629 
-0.3 144:1.0705811 
-0.3 86:1.4117283 2:1.1106983 
-0.3 273:1.0901766 145:1.0109954 27:1.0222764 
-0.3 71:1.132238 68:1.0054629 
-0.3 68:1.0054629 273:1.0901766 
-0.3 86:1.4117283 
-0.3 68:1.0054629 273:1.0901766 
-0.3 155:1.3716111 9:1.0054629 
-0.3 144:1.0705811 
-0.3 27:1.0222764 145:1.0109954 
-0.3 64:0.87778412 
-0.3 64:0.87778412 
-0.3 64:0.87778412 
-0.3 64:0.87778412 
