svm_type c_svc
kernel_type rbf
gamma 0.5
nr_class 2
total_sv 307
rho -0.398248
label 1 -1
nr_sv 161 146
SV
0.2178388336109796 2:2.2213966 3:1.0579919 
0.136927674875066 6:2.881384 27:1.0222764 
0.2858185391626138 6:2.881384 27:1.0222764 
0.3 64:0.87778412 
0.3 71:1.132238 
0.3 71:2.264476 
0.3 14:1.0457575 27:1.0222764 
0.3 27:1.0222764 
0.3 117:1.4117283 
0.3 71:1.132238 3:1.0579919 
0.3 155:1.3716111 
0.3 68:1.0054629 3:1.0579919 
0.3 117:1.4117283 
0.3 9:1.0054629 155:1.3716111 
0.3 144:1.0705811 3:1.0579919 
0.3 71:2.264476 155:1.3716111 
0.3 68:1.0054629 9:1.0054629 
0.1095079088964748 14:1.0457575 9:1.0054629 117:1.4117283 
0.3 155:1.3716111 
0.2176688861627683 14:1.0457575 9:1.0054629 
0.3 86:1.4117283 
0.3 144:2.1411621 3:2.1159839 
0.3 68:1.0054629 214:1.2498775 
0.3 117:1.4117283 51:1.0770152 27:1.0222764 
0.3 9:1.0054629 155:1.3716111 
0.3 27:2.0445528 14:3.1372725 
0.3 117:1.4117283 14:1.0457575 
0.3 9:1.0054629 27:1.0222764 
0.3 27:1.0222764 
0.3 144:1.0705811 14:1.0457575 
0.3 51:1.0770152 9:2.0109258 
0.3 9:1.0054629 155:1.3716111 
0.3 71:1.132238 
0.3 71:1.132238 
0.3 14:1.0457575 6:1.440692 64:0.87778412 
0.3 9:1.0054629 155:1.3716111 
0.03982485488093366 27:1.0222764 14:1.0457575 
0.3 51:1.0770152 64:0.87778412 117:1.4117283 
0.08993188686547793 68:1.0054629 
0.2076707459807053 117:1.4117283 51:1.0770152 
0.3 27:1.0222764 
0.3 2:1.1106983 117:1.4117283 3:2.1159839 
0.3 27:1.0222764 9:1.0054629 14:1.0457575 
0.3 27:1.0222764 51:2.1540304 64:0.87778412 
0.3 64:0.87778412 
0.3 68:1.0054629 
0.3 2:1.1106983 64:0.87778412 
0.3 14:1.0457575 3:2.1159839 
0.3 117:1.4117283 
0.3 9:1.0054629 2:1.1106983 
0.3 68:1.0054629 
0.08261171943041434 9:2.0109258 51:1.0770152 
0.3 68:1.0054629 
0.3 68:1.0054629 
0.1654546797049322 117:1.4117283 
0.1329733331949492 27:1.0222764 51:1.0770152 
0.1673858189032596 9:1.0054629 27:1.0222764 
0.3 9:1.0054629 71:1.132238 
0.3 6:1.440692 64:0.87778412 27:1.0222764 
0.3 71:1.132238 9:1.0054629 
0.3 27:1.0222764 
0.3 64:0.87778412 3:1.0579919 
0.3 68:1.0054629 
0.3 9:1.0054629 71:1.132238 
0.08984923388134722 9:2.0109258 2:1.1106983 
0.1178619267661325 3:1.0579919 
0.3 64:0.87778412 
0.1561423705493573 27:1.0222764 2:1.1106983 
0.3 27:1.0222764 6:1.440692 2:1.1106983 
0.3 155:1.3716111 
0.008578114839485052 2:1.1106983 6:1.440692 9:1.0054629 
0.1540130688522559 3:2.1159839 2:1.1106983 
0.05842818413775562 27:1.0222764 51:1.0770152 117:1.4117283 
0.1199738668623197 2:1.1106983 6:1.440692 27:1.0222764 
0.3 27:1.0222764 2:1.1106983 
0.3 68:1.0054629 
0.3 64:0.87778412 68:1.0054629 
0.3 86:1.4117283 
0.3 86:2.8234566 71:1.132238 
0.3 64:1.7555682 27:1.0222764 
0.3 27:1.0222764 14:1.0457575 
0.1527079691851993 14:1.0457575 27:1.0222764 
0.1944992992484656 3:1.0579919 27:1.0222764 117:1.4117283 
0.3 27:1.0222764 14:1.0457575 
0.3 27:1.0222764 14:1.0457575 9:1.0054629 
0.3 6:1.440692 155:1.3716111 
0.3 155:1.3716111 51:1.0770152 14:1.0457575 
0.3 14:1.0457575 9:1.0054629 155:1.3716111 
0.3 3:1.0579919 
0.3 51:1.0770152 6:1.440692 64:0.87778412 
0.3 71:1.132238 155:1.3716111 
0.3 3:1.0579919 
0.3 144:1.0705811 64:0.87778412 
0.3 27:1.0222764 
0.3 71:1.132238 
0.3 3:1.0579919 27:1.0222764 
0.3 68:1.0054629 
0.1846270212125441 27:1.0222764 14:2.091515 68:1.0054629 
0.3 27:1.0222764 2:1.1106983 
0.3 27:1.0222764 
0.3 2:1.1106983 144:1.0705811 
0.3 27:1.0222764 2:1.1106983 3:1.0579919 
0.3 27:1.0222764 
0.3 3:1.0579919 2:1.1106983 
0.3 27:1.0222764 3:1.0579919 117:1.4117283 
0.1991603164527185 117:1.4117283 2:1.1106983 
0.1709769175602471 2:1.1106983 14:2.091515 
0.3 2:1.1106983 
0.07745413790415844 14:1.0457575 117:1.4117283 2:1.1106983 
0.3 68:1.0054629 
0.3 27:1.0222764 2:1.1106983 6:1.440692 
0.2468806438318495 117:1.4117283 2:1.1106983 27:1.0222764 
0.3 2:1.1106983 
0.3 2:1.1106983 
0.3 2:1.1106983 
0.3 64:0.87778412 3:1.0579919 
0.3 68:1.0054629 
0.3 68:1.0054629 
0.1411786548103853 51:1.0770152 
0.3 71:1.132238 
0.2439448614943612 117:1.4117283 27:1.0222764 
0.3 14:1.0457575 155:1.3716111 
0.3 68:1.0054629 
0.0134399709234342 14:1.0457575 
0.3 51:1.0770152 
0.3 117:1.4117283 9:1.0054629 
0.3 3:1.0579919 
0.3 14:1.0457575 
0.3 155:1.3716111 
0.3 68:1.0054629 
0.3 51:1.0770152 
0.3 64:0.87778412 
0.3 144:1.0705811 64:0.87778412 
0.2291545610243242 27:1.0222764 51:1.0770152 9:1.0054629 
0.1892477913475716 9:1.0054629 
0.3 14:1.0457575 
0.2663066693757148 9:1.0054629 
0.3 51:1.0770152 
0.3 71:1.132238 
0.3 71:1.132238 14:1.0457575 3:1.0579919 9:1.0054629 
0.3 51:1.0770152 
0.1023554854519265 51:1.0770152 3:1.0579919 
0.3 68:1.0054629 
0.3 51:1.0770152 
0.3 51:1.0770152 
0.3 144:1.0705811 214:1.2498775 
0.3 68:1.0054629 
0.3 68:1.0054629 155:1.3716111 9:1.0054629 
0.3 68:1.0054629 
0.03260026351913328 6:1.440692 
0.3 6:1.440692 
0.3 51:1.0770152 71:1.132238 
0.0302088641207792 9:2.0109258 68:1.0054629 
0.3 2:1.1106983 27:1.0222764 
0.3 6:1.440692 
0.2767699616016708 2:1.1106983 
0.1562395526081696 14:1.0457575 3:1.0579919 
0.3 3:1.0579919 
0.2808712094260806 51:1.0770152 3:1.0579919 
0.2962910357784672 68:1.0054629 
0.3 14:1.0457575 
-0.3 27:1.0222764 
-0.3 51:1.0770152 
-0.3 68:2.0109258 
-0.3 68:2.0109258 
-0.3 9:1.0054629 
-0.3 71:1.132238 
-0.3 71:2.264476 27:1.0222764 
-0.3 68:1.0054629 
-0.3 155:1.3716111 71:1.132238 145:1.0109954 
-0.3 144:1.0705811 
-0.3 71:1.132238 
-0.3 273:1.0901766 155:1.3716111 
-0.3 71:1.132238 
-0.3 71:1.132238 
-0.3 27:1.0222764 117:1.4117283 
-0.3 51:1.0770152 
-0.3 3:1.0579919 
-0.3 2:1.1106983 
-0.3 27:1.0222764 
-0.3 68:1.0054629 144:1.0705811 
-0.3 2:1.1106983 
-0.3 71:1.132238 9:1.0054629 
-0.3 51:1.0770152 
-0.3 51:1.0770152 
-0.3 27:1.0222764 
-0.3 144:1.0705811 
-0.3 27:1.0222764 
-0.3 27:1.0222764 
-0.3 68:2.0109258 86:1.4117283 
-0.1045948273491101 144:1.0705811 145:1.0109954 
-0.3 86:1.4117283 145:1.0109954 71:1.132238 
-0.3 27:1.0222764 
-0.3 155:1.3716111 9:1.0054629 
-0.3 68:1.0054629 
-0.3 145:1.0109954 9:1.0054629 
-0.3 27:1.0222764 
-0.3 27:1.0222764 
-0.3 214:1.2498775 
-0.2759926439582122 145:1.0109954 71:1.132238 
-0.3 155:1.3716111 
-0.3 145:1.0109954 27:1.0222764 
-0.3 273:1.0901766 27:1.0222764 
-0.3 27:1.0222764 
-0.2705400558143931 145:1.0109954 27:1.0222764 
-0.07533087699503631 145:1.0109954 68:1.0054629 
-0.3 145:1.0109954 273:1.0901766 71:1.132238 155:1.3716111 
-0.2845376992516085 145:1.0109954 71:1.132238 
-0.3 71:1.132238 68:1.0054629 
-0.3 71:2.264476 145:1.0109954 155:1.3716111 
-0.3 155:1.3716111 
-0.3 68:1.0054629 86:1.4117283 71:1.132238 
-0.3 71:1.132238 
-0.3 68:1.0054629 
-0.3 155:1.3716111 
-0.3 273:1.0901766 144:1.0705811 
-0.3 273:1.0901766 145:1.0109954 71:1.132238 
-0.3 71:1.132238 
-0.3 71:1.132238 
-0.3 64:1.7555682 68:2.0109258 
-0.3 273:1.0901766 2:1.1106983 
-0.3 64:1.7555682 68:2.0109258 
-0.3 155:1.3716111 
-0.3 14:1.0457575 
-0.3 117:1.4117283 
-0.3 51:1.0770152 155:1.3716111 
-0.3 6:1.440692 273:1.0901766 27:1.0222764 
-0.3 71:1.132238 
-0.3 71:1.132238 9:1.0054629 86:1.4117283 117:1.4117283 
-0.3 51:1.0770152 144:1.0705811 155:1.3716111 
-0.3 71:1.132238 9:1.0054629 
-0.3 145:2.0219908 144:1.0705811 
-0.3 27:1.0222764 
-0.3 68:1.0054629 144:1.0705811 273:1.0901766 27:1.0222764 
-0.3 86:1.4117283 27:1.0222764 144:1.0705811 
-0.3 71:2.264476 273:1.0901766 
-0.3 145:1.0109954 86:1.4117283 
-0.3 27:1.0222764 9:1.0054629 
-0.3 155:1.3716111 
-0.3 155:1.3716111 
-0.3 144:1.0705811 68:1.0054629 
-0.3 117:1.4117283 
-0.3 155:1.3716111 145:1.0109954 
-0.3 68:1.0054629 
-0.3 64:0.87778412 68:1.0054629 
-0.1904756400232043 64:0.87778412 
-0.3 51:1.0770152 144:1.0705811 155:1.3716111 
-0.3 64:0.87778412 
-0.3 68:1.0054629 
-0.3 144:1.0705811 86:1.4117283 
-0.2467746434116467 145:1.0109954 144:1.0705811 
-0.3 68:1.0054629 
-0.3 68:1.0054629 145:1.0109954 
-0.199802800903827 71:1.132238 86:1.4117283 
-0.3 71:1.132238 86:1.4117283 
-0.1618039236217337 145:2.0219908 
-0.3 27:1.0222764 
-0.2898728454400492 273:1.0901766 145:1.0109954 
-0.3 3:1.0579919 86:1.4117283 71:1.132238 
-0.3 71:1.132238 
-0.3 145:1.0109954 68:1.0054629 144:1.0705811 71:1.132238 
-0.0450283815967786 64:0.87778412 214:1.2498775 273:1.0901766 144:1.0705811 
-0.3 27:1.0222764 
-0.3 155:1.3716111 
-0.3 14:1.0457575 155:1.3716111 
-0.3 68:1.0054629 
-0.3 86:1.4117283 27:1.0222764 
-0.3 86:1.4117283 
-0.3 64:0.87778412 214:1.2498775 273:1.0901766 144:1.0705811 
-0.3 86:1.4117283 
-0.3 64:0.87778412 214:1.2498775 273:1.0901766 144:1.0705811 
-0.3 64:0.87778412 214:1.2498775 273:1.0901766 144:1.0705811 
-0.3 64:1.7555682 68:2.0109258 
-0.3 64:0.87778412 
-0.3 64:0.87778412 
-0.3 64:0.87778412 
-0.3 64:0.87778412 
-0.3 64:0.87778412 
-0.3 64:0.87778412 
-0.3 64:0.87778412 
-0.3 27:1.0222764 
-0.3 3:1.0579919 86:1.4117283 71:1.132238 
-0.3 145:1.0109954 68:1.0054629 144:1.0705811 71:1.132238 
-0.3 145:1.0109954 68:1.0054629 
-0.3 117:1.4117283 
-0.3 68:1.0054629 
-0.3 68:1.0054629 273:1.0901766 71:1.132238 27:1.0222764 
-0.3 71:2.264476 
-0.3 71:1.132238 68:1.0054629 
-0.3 2:1.1106983 
-0.3 155:1.3716111 
-0.3 117:1.4117283 
-0.3 273:1.0901766 68:1.0054629 
-0.3 144:1.0705811 
-0.3 86:1.4117283 2:1.1106983 
-0.3 273:1.0901766 145:1.0109954 27:1.0222764 
-0.3 71:1.132238 68:1.0054629 
-0.3 68:1.0054629 273:1.0901766 
-0.2986224960688294 86:1.4117283 
-0.3 68:1.0054629 273:1.0901766 
-0.3 155:1.3716111 9:1.0054629 
-0.3 144:1.0705811 
-0.3 27:1.0222764 145:1.0109954 
-0.3 64:0.87778412 
-0.3 64:0.87778412 
-0.3 64:0.87778412 
-0.3 64:0.87778412 
