svm_type c_svc
kernel_type rbf
gamma 0.5
nr_class 2
total_sv 284
rho -0.323642
label 1 -1
nr_sv 146 138
SV
0.2919434344687824 2:2.2213966 3:1.0579919 
0.2131308212335066 6:2.881384 27:1.0222764 
0.2735504615201577 6:2.881384 27:1.0222764 
0.3 64:0.87778412 
0.3 71:1.132238 
0.3 71:2.264476 
0.3 14:1.0457575 27:1.0222764 
0.3 27:1.0222764 
0.3 117:1.4117283 
0.3 71:1.132238 3:1.0579919 
0.3 155:1.3716111 
0.3 68:1.0054629 3:1.0579919 
0.3 117:1.4117283 
0.3 9:1.0054629 155:1.3716111 
0.3 144:1.0705811 3:1.0579919 
0.3 71:2.264476 155:1.3716111 
0.07475374052841444 68:1.0054629 
0.3 68:1.0054629 9:1.0054629 
0.1596464978322733 14:1.0457575 9:1.0054629 117:1.4117283 
0.3 155:1.3716111 
0.2457306854607158 14:1.0457575 9:1.0054629 
0.3 68:1.0054629 
0.04425053763795614 27:1.0222764 51:1.0770152 9:1.0054629 
0.3 86:1.4117283 
0.3 144:2.1411621 3:2.1159839 
0.3 68:1.0054629 214:1.2498775 
0.3 27:1.0222764 14:1.0457575 
0.3 117:1.4117283 51:1.0770152 27:1.0222764 
0.3 9:1.0054629 155:1.3716111 
0.3 68:1.0054629 
0.3 68:1.0054629 
0.3 27:2.0445528 14:3.1372725 
0.3 117:1.4117283 14:1.0457575 
0.3 9:1.0054629 27:1.0222764 
0.3 27:1.0222764 
0.2718384089394499 117:1.4117283 51:1.0770152 
0.3 68:1.0054629 
0.3 144:1.0705811 14:1.0457575 
0.3 51:1.0770152 9:2.0109258 
0.2508014789779774 27:1.0222764 51:2.1540304 
0.3 9:1.0054629 155:1.3716111 
0.3 9:1.0054629 71:1.132238 
0.3 6:1.440692 64:0.87778412 27:1.0222764 
0.3 71:1.132238 9:1.0054629 
0.3 27:1.0222764 
0.3 64:0.87778412 3:1.0579919 
0.3 68:1.0054629 
0.3 9:1.0054629 71:1.132238 
0.3 9:2.0109258 2:1.1106983 
0.3 64:0.87778412 
0.3 27:1.0222764 2:1.1106983 
0.3 27:1.0222764 6:1.440692 2:1.1106983 
0.3 155:1.3716111 
0.05278553351952869 2:1.1106983 6:1.440692 9:1.0054629 
0.2290510907128236 3:2.1159839 2:1.1106983 
0.1318690517220498 27:1.0222764 51:1.0770152 117:1.4117283 
0.1739538460542875 2:1.1106983 6:1.440692 27:1.0222764 
0.3 27:1.0222764 2:1.1106983 
0.3 68:1.0054629 
0.3 64:0.87778412 68:1.0054629 
0.3 86:1.4117283 
0.3 86:2.8234566 71:1.132238 
0.3 64:1.7555682 27:1.0222764 
0.3 27:1.0222764 14:1.0457575 
0.3 14:1.0457575 27:1.0222764 
0.1481865389390794 3:1.0579919 27:1.0222764 117:1.4117283 
0.3 27:1.0222764 14:1.0457575 
0.3 27:1.0222764 14:1.0457575 9:1.0054629 
0.3 6:1.440692 155:1.3716111 
0.3 155:1.3716111 51:1.0770152 14:1.0457575 
0.3 14:1.0457575 9:1.0054629 155:1.3716111 
0.09641489946048892 3:1.0579919 
0.3 51:1.0770152 6:1.440692 64:0.87778412 
0.3 71:1.132238 155:1.3716111 
0.3 3:1.0579919 
0.3 144:1.0705811 64:0.87778412 
0.3 27:1.0222764 
0.3 71:1.132238 
0.3 3:1.0579919 27:1.0222764 
0.3 68:1.0054629 
0.235056998695938 27:1.0222764 14:2.091515 68:1.0054629 
0.2619206445954619 27:1.0222764 2:1.1106983 
0.3 27:1.0222764 
0.3 2:1.1106983 144:1.0705811 
0.3 27:1.0222764 2:1.1106983 3:1.0579919 
0.3 27:1.0222764 
0.3 3:1.0579919 2:1.1106983 
0.3 27:1.0222764 3:1.0579919 117:1.4117283 
0.2331618579240316 117:1.4117283 2:1.1106983 
0.1440884482264636 2:1.1106983 
0.2460963939551901 2:1.1106983 14:2.091515 
0.3 2:1.1106983 
0.1107335389506978 14:1.0457575 117:1.4117283 2:1.1106983 
0.3 68:1.0054629 
0.3 27:1.0222764 2:1.1106983 6:1.440692 
0.2635812996170503 117:1.4117283 2:1.1106983 27:1.0222764 
0.3 2:1.1106983 
0.3 2:1.1106983 
0.3 2:1.1106983 
0.3 64:0.87778412 3:1.0579919 
0.3 68:1.0054629 
0.3 68:1.0054629 
0.3 71:1.132238 
0.3 117:1.4117283 27:1.0222764 
0.3 14:1.0457575 155:1.3716111 
0.1466923432349714 14:1.0457575 3:1.0579919 
0.3 68:1.0054629 
0.3 51:1.0770152 
0.3 117:1.4117283 9:1.0054629 
0.3 3:1.0579919 
0.1117471591109974 14:1.0457575 
0.3 155:1.3716111 
0.3 68:1.0054629 
0.3 51:1.0770152 
0.3 64:0.87778412 
0.3 144:1.0705811 64:0.87778412 
0.3 27:1.0222764 51:1.0770152 9:1.0054629 
0.1728389327009241 9:1.0054629 
0.3 9:1.0054629 
0.3 14:1.0457575 
0.2701207185631954 9:1.0054629 
0.3 51:1.0770152 
0.3 71:1.132238 
0.3 71:1.132238 14:1.0457575 3:1.0579919 9:1.0054629 
0.3 51:1.0770152 
0.1302809893357834 51:1.0770152 3:1.0579919 
0.3 68:1.0054629 
0.3 51:1.0770152 
0.2091012670337886 51:1.0770152 
0.3 144:1.0705811 214:1.2498775 
0.3 68:1.0054629 
0.3 68:1.0054629 155:1.3716111 9:1.0054629 
0.3 68:1.0054629 
0.02105242835604 6:1.440692 
0.3 6:1.440692 
0.3 51:1.0770152 71:1.132238 
0.08208303490904238 9:2.0109258 68:1.0054629 
0.3 2:1.1106983 27:1.0222764 
0.2993277607744196 6:1.440692 
0.3 2:1.1106983 
0.2840757056918591 14:1.0457575 3:1.0579919 
0.3 3:1.0579919 
0.3 51:1.0770152 3:1.0579919 
0.3 117:1.4117283 
0.3 68:1.0054629 
0.3 14:1.0457575 
-0.3 27:1.0222764 
-0.3 51:1.0770152 
-0.3 68:2.0109258 
-0.3 68:2.0109258 
-0.3 9:1.0054629 
-0.3 71:1.132238 
-0.3 71:2.264476 27:1.0222764 
-0.3 68:1.0054629 
-0.3 155:1.3716111 71:1.132238 145:1.0109954 
-0.3 144:1.0705811 
-0.3 71:1.132238 
-0.3 2:1.1106983 
-0.3 27:1.0222764 
-0.3 68:1.0054629 144:1.0705811 
-0.3 2:1.1106983 
-0.3 71:1.132238 9:1.0054629 
-0.3 51:1.0770152 
-0.3 51:1.0770152 
-0.3 27:1.0222764 
-0.3 144:1.0705811 
-0.3 27:1.0222764 
-0.3 27:1.0222764 
-0.3 68:2.0109258 86:1.4117283 
-0.09255668405244062 144:1.0705811 145:1.0109954 
-0.3 86:1.4117283 145:1.0109954 71:1.132238 
-0.3 27:1.0222764 
-0.3 155:1.3716111 9:1.0054629 
-0.3 68:1.0054629 
-0.3 145:1.0109954 9:1.0054629 
-0.3 27:1.0222764 
-0.3 27:1.0222764 
-0.3 214:1.2498775 
-0.242423884892227 145:1.0109954 71:1.132238 
-0.3 155:1.3716111 
-0.3 145:1.0109954 27:1.0222764 
-0.3 273:1.0901766 27:1.0222764 
-0.3 27:1.0222764 
-0.2623331399695374 145:1.0109954 27:1.0222764 
-0.06968199753964477 145:1.0109954 68:1.0054629 
-0.3 145:1.0109954 273:1.0901766 71:1.132238 155:1.3716111 
-0.3 145:1.0109954 71:1.132238 
-0.3 71:1.132238 68:1.0054629 
-0.3 71:2.264476 145:1.0109954 155:1.3716111 
-0.3 155:1.3716111 
-0.3 68:1.0054629 86:1.4117283 71:1.132238 
-0.3 71:1.132238 
-0.3 68:1.0054629 
-0.3 155:1.3716111 
-0.3 273:1.0901766 144:1.0705811 
-0.3 273:1.0901766 145:1.0109954 71:1.132238 
-0.3 71:1.132238 
-0.3 71:1.132238 
-0.3 64:1.7555682 68:2.0109258 
-0.3 273:1.0901766 2:1.1106983 
-0.3 64:1.7555682 68:2.0109258 
-0.3 155:1.3716111 
-0.3 14:1.0457575 
-0.3 117:1.4117283 
-0.3 51:1.0770152 155:1.3716111 
-0.3 6:1.440692 273:1.0901766 27:1.0222764 
-0.3 71:1.132238 
-0.3 71:1.132238 9:1.0054629 86:1.4117283 117:1.4117283 
-0.3 51:1.0770152 144:1.0705811 155:1.3716111 
-0.3 71:1.132238 9:1.0054629 
-0.3 145:2.0219908 144:1.0705811 
-0.3 27:1.0222764 
-0.3 68:1.0054629 144:1.0705811 273:1.0901766 27:1.0222764 
-0.3 86:1.4117283 27:1.0222764 144:1.0705811 
-0.3 71:2.264476 273:1.0901766 
-0.3 145:1.0109954 86:1.4117283 
-0.3 27:1.0222764 9:1.0054629 
-0.3 155:1.3716111 
-0.3 155:1.3716111 
-0.3 144:1.0705811 68:1.0054629 
-0.3 117:1.4117283 
-0.3 155:1.3716111 145:1.0109954 
-0.3 68:1.0054629 
-0.3 64:0.87778412 68:1.0054629 
-0.3 51:1.0770152 144:1.0705811 155:1.3716111 
-0.3 68:1.0054629 
-0.3 144:1.0705811 86:1.4117283 
-0.2342082969454727 145:1.0109954 144:1.0705811 
-0.3 68:1.0054629 
-0.3 68:1.0054629 145:1.0109954 
-0.1728389327009241 71:1.132238 86:1.4117283 
-0.2777245257971834 71:1.132238 86:1.4117283 
-0.1188490839737355 145:2.0219908 
-0.01143112241636228 273:1.0901766 145:1.0109954 
-0.3 27:1.0222764 
-0.3 273:1.0901766 145:1.0109954 
-0.3 3:1.0579919 86:1.4117283 71:1.132238 
-0.3 71:1.132238 
-0.3 145:1.0109954 68:1.0054629 144:1.0705811 71:1.132238 
-0.3 27:1.0222764 
-0.3 155:1.3716111 
-0.3 14:1.0457575 155:1.3716111 
-0.3 68:1.0054629 
-0.3 86:1.4117283 27:1.0222764 
-0.2942661747177895 86:1.4117283 
-0.3 64:0.87778412 214:1.2498775 273:1.0901766 144:1.0705811 
-0.3 86:1.4117283 
-0.3 64:0.87778412 214:1.2498775 273:1.0901766 144:1.0705811 
-0.2926618421373912 64:0.87778412 214:1.2498775 273:1.0901766 144:1.0705811 
-0.3 64:1.7555682 68:2.0109258 
-0.2169716077916461 64:0.87778412 
-0.3 64:0.87778412 
-0.3 64:0.87778412 
-0.3 64:0.87778412 
-0.3 64:0.87778412 
-0.3 64:0.87778412 
-0.3 64:0.87778412 
-0.3 27:1.0222764 
-0.3 3:1.0579919 86:1.4117283 71:1.132238 
-0.3 145:1.0109954 68:1.0054629 144:1.0705811 71:1.132238 
-0.3 145:1.0109954 68:1.0054629 
-0.3 117:1.4117283 
-0.3 68:1.0054629 
-0.3 68:1.0054629 273:1.0901766 71:1.132238 27:1.0222764 
-0.3 71:2.264476 
-0.3 71:1.132238 68:1.0054629 
-0.3 2:1.1106983 
-0.3 155:1.3716111 
-0.3 117:1.4117283 
-0.3 273:1.0901766 68:1.0054629 
-0.3 144:1.0705811 
-0.3 86:1.4117283 2:1.1106983 
-0.3 273:1.0901766 145:1.0109954 27:1.0222764 
-0.3 71:1.132238 68:1.0054629 
-0.3 68:1.0054629 273:1.0901766 
-0.2968613718979312 86:1.4117283 
-0.3 68:1.0054629 273:1.0901766 
-0.3 155:1.3716111 9:1.0054629 
-0.3 144:1.0705811 
-0.3 27:1.0222764 145:1.0109954 
-0.3 64:0.87778412 
-0.3 64:0.87778412 
-0.3 64:0.87778412 
-0.2970578838510605 64:0.87778412 
