svm_type c_svc
kernel_type rbf
gamma 0.5
nr_class 2
total_sv 276
rho -0.475144
label 1 -1
nr_sv 146 130
SV
0.1688817500362995 2:2.2213966 3:1.0579919 
0.06343913532163566 6:2.881384 27:1.0222764 
0.3 6:2.881384 27:1.0222764 
0.3 64:0.87778412 
0.3 71:1.132238 
0.3 71:2.264476 
0.3 14:1.0457575 27:1.0222764 
0.3 27:1.0222764 
0.3 71:1.132238 3:1.0579919 
0.3 155:1.3716111 
0.3 68:1.0054629 3:1.0579919 
0.3 117:1.4117283 
0.1705008613053659 9:1.0054629 155:1.3716111 
0.3 144:1.0705811 3:1.0579919 
0.3 71:2.264476 155:1.3716111 
0.3 68:1.0054629 9:1.0054629 
0.08372665663272237 14:1.0457575 9:1.0054629 117:1.4117283 
0.3 155:1.3716111 
0.1793863298685697 14:1.0457575 9:1.0054629 
0.1804117147838908 27:1.0222764 51:1.0770152 9:1.0054629 
0.3 86:1.4117283 
0.3 144:2.1411621 3:2.1159839 
0.3 68:1.0054629 214:1.2498775 
0.3 117:1.4117283 51:1.0770152 27:1.0222764 
0.3 9:1.0054629 155:1.3716111 
0.3 27:2.0445528 14:3.1372725 
0.3 117:1.4117283 14:1.0457575 
0.163645164956137 9:1.0054629 27:1.0222764 
0.3 27:1.0222764 
0.3 68:1.0054629 
0.3 144:1.0705811 14:1.0457575 
0.3 51:1.0770152 9:2.0109258 
0.3 9:1.0054629 155:1.3716111 
0.3 71:1.132238 
0.05511454553820074 3:1.0579919 
0.2356285313399068 51:1.0770152 
0.3 68:1.0054629 
0.3 71:1.132238 
0.3 51:1.0770152 
0.3 14:1.0457575 6:1.440692 64:0.87778412 
0.2736310647442834 9:1.0054629 155:1.3716111 
0.001835084804139252 27:1.0222764 14:1.0457575 
0.3 51:1.0770152 64:0.87778412 117:1.4117283 
0.3 68:1.0054629 
0.1585551089665182 117:1.4117283 51:1.0770152 
0.3 27:1.0222764 
0.3 2:1.1106983 117:1.4117283 3:2.1159839 
0.3 51:1.0770152 
0.3 27:1.0222764 9:1.0054629 14:1.0457575 
0.2753487215747029 27:1.0222764 51:2.1540304 64:0.87778412 
0.04984287919750979 51:1.0770152 3:1.0579919 
0.3 51:1.0770152 
0.3 64:0.87778412 
0.3 68:1.0054629 
0.3 2:1.1106983 64:0.87778412 
0.3 14:1.0457575 3:2.1159839 
0.3 117:1.4117283 
0.3 9:1.0054629 2:1.1106983 
0.175685259196463 27:1.0222764 51:1.0770152 
0.3 68:1.0054629 
0.05446201230327161 9:2.0109258 51:1.0770152 
0.3 68:1.0054629 
0.3 68:1.0054629 
0.3 117:1.4117283 
0.3 9:1.0054629 27:1.0222764 
0.3 9:1.0054629 71:1.132238 
0.3 6:1.440692 64:0.87778412 27:1.0222764 
0.3 71:1.132238 9:1.0054629 
0.3 27:1.0222764 
0.3 64:0.87778412 3:1.0579919 
0.3 68:1.0054629 
0.3 9:1.0054629 71:1.132238 
0.04686862232389995 9:2.0109258 2:1.1106983 
0.3 3:1.0579919 
0.3 64:0.87778412 
0.1075470733996813 27:1.0222764 2:1.1106983 
0.3 27:1.0222764 6:1.440692 2:1.1106983 
0.3 155:1.3716111 
0.1101873535798369 3:2.1159839 2:1.1106983 
0.03181400246912365 27:1.0222764 51:1.0770152 117:1.4117283 
0.09683166848283524 2:1.1106983 6:1.440692 27:1.0222764 
0.3 27:1.0222764 2:1.1106983 
0.3 68:1.0054629 
0.3 64:0.87778412 68:1.0054629 
0.3 86:1.4117283 
0.3 86:2.8234566 71:1.132238 
0.3 51:1.0770152 
0.3 64:1.7555682 27:1.0222764 
0.3 27:1.0222764 14:1.0457575 
0.1463896684725324 14:1.0457575 27:1.0222764 
0.1701456847723276 3:1.0579919 27:1.0222764 117:1.4117283 
0.3 27:1.0222764 14:1.0457575 
0.3 27:1.0222764 14:1.0457575 9:1.0054629 
0.3 6:1.440692 155:1.3716111 
0.3 51:1.0770152 
0.3 155:1.3716111 51:1.0770152 14:1.0457575 
0.3 14:1.0457575 9:1.0054629 155:1.3716111 
0.3 3:1.0579919 
0.3 51:1.0770152 6:1.440692 64:0.87778412 
0.3 71:1.132238 155:1.3716111 
0.3 3:1.0579919 
0.3 144:1.0705811 64:0.87778412 
0.3 27:1.0222764 
0.3 71:1.132238 
0.3 3:1.0579919 27:1.0222764 
0.3 68:1.0054629 
0.1274383105342186 27:1.0222764 14:2.091515 68:1.0054629 
0.3 27:1.0222764 2:1.1106983 
0.3 27:1.0222764 
0.3 2:1.1106983 144:1.0705811 
0.2741368380332271 27:1.0222764 2:1.1106983 3:1.0579919 
0.3 27:1.0222764 
0.2782765253758737 3:1.0579919 2:1.1106983 
0.3 27:1.0222764 3:1.0579919 117:1.4117283 
0.1813103657827394 117:1.4117283 2:1.1106983 
0.1250336514205699 2:1.1106983 14:2.091515 
0.2106945104755068 2:1.1106983 
0.05520596786409964 14:1.0457575 117:1.4117283 2:1.1106983 
0.3 68:1.0054629 
0.3 27:1.0222764 2:1.1106983 6:1.440692 
0.2146947271878312 117:1.4117283 2:1.1106983 27:1.0222764 
0.3 9:1.0054629 
0.3 2:1.1106983 
0.3 2:1.1106983 
0.3 6:1.440692 
0.3 2:1.1106983 
0.3 64:0.87778412 3:1.0579919 
0.3 68:1.0054629 
0.3 68:1.0054629 
0.3 51:1.0770152 
0.3 71:1.132238 
0.213159512968954 117:1.4117283 27:1.0222764 
0.1573236169112009 9:1.0054629 
0.3 14:1.0457575 155:1.3716111 
0.3 68:1.0054629 
0.2970393846429396 14:1.0457575 
0.006592902319486555 9:2.0109258 68:1.0054629 
0.3 2:1.1106983 27:1.0222764 
0.2750227977622523 6:1.440692 
0.3 2:1.1106983 
0.1059843580090731 14:1.0457575 3:1.0579919 
0.3 3:1.0579919 
0.284955653254804 51:1.0770152 3:1.0579919 
0.06252302055359593 117:1.4117283 
0.1921204616082511 68:1.0054629 
0.2991493967458868 14:1.0457575 
-0.3 27:1.0222764 
-0.3 51:1.0770152 
-0.3 68:2.0109258 
-0.3 68:2.0109258 
-0.3 9:1.0054629 
-0.3 71:1.132238 
-0.3 71:2.264476 27:1.0222764 
-0.3 68:1.0054629 
-0.3 155:1.3716111 71:1.132238 145:1.0109954 
-0.3 144:1.0705811 
-0.3 71:1.132238 
-0.3 273:1.0901766 155:1.3716111 
-0.3 71:1.132238 
-0.3 71:1.132238 
-0.3 27:1.0222764 117:1.4117283 
-0.3 51:1.0770152 
-0.3 3:1.0579919 
-0.3 2:1.1106983 
-0.3 27:1.0222764 
-0.3 68:1.0054629 144:1.0705811 
-0.3 2:1.1106983 
-0.3 71:1.132238 9:1.0054629 
-0.3 51:1.0770152 
-0.3 51:1.0770152 
-0.3 27:1.0222764 
-0.3 144:1.0705811 
-0.3 27:1.0222764 
-0.3 27:1.0222764 
-0.3 68:2.0109258 86:1.4117283 
-0.008386745015169107 144:1.0705811 145:1.0109954 
-0.3 86:1.4117283 145:1.0109954 71:1.132238 
-0.3 27:1.0222764 
-0.3 155:1.3716111 9:1.0054629 
-0.3 68:1.0054629 
-0.3 145:1.0109954 9:1.0054629 
-0.3 27:1.0222764 
-0.3 27:1.0222764 
-0.3 214:1.2498775 
-0.3 145:1.0109954 71:1.132238 
-0.3 155:1.3716111 
-0.3 145:1.0109954 27:1.0222764 
-0.3 273:1.0901766 27:1.0222764 
-0.3 27:1.0222764 
-0.3 145:1.0109954 27:1.0222764 
-0.1908333491947727 145:1.0109954 68:1.0054629 
-0.3 51:1.0770152 155:1.3716111 
-0.3 6:1.440692 273:1.0901766 27:1.0222764 
-0.3 71:1.132238 
-0.3 71:1.132238 9:1.0054629 86:1.4117283 117:1.4117283 
-0.3 51:1.0770152 144:1.0705811 155:1.3716111 
-0.3 71:1.132238 9:1.0054629 
-0.3 145:2.0219908 144:1.0705811 
-0.3 27:1.0222764 
-0.3 68:1.0054629 144:1.0705811 273:1.0901766 27:1.0222764 
-0.3 86:1.4117283 27:1.0222764 144:1.0705811 
-0.3 71:2.264476 273:1.0901766 
-0.3 145:1.0109954 86:1.4117283 
-0.3 27:1.0222764 9:1.0054629 
-0.3 155:1.3716111 
-0.3 155:1.3716111 
-0.3 144:1.0705811 68:1.0054629 
-0.3 117:1.4117283 
-0.3 155:1.3716111 145:1.0109954 
-0.3 68:1.0054629 
-0.3 64:0.87778412 68:1.0054629 
-0.1037235930334856 64:0.87778412 
-0.3 51:1.0770152 144:1.0705811 155:1.3716111 
-0.3 64:0.87778412 
-0.3 68:1.0054629 
-0.3 144:1.0705811 86:1.4117283 
-0.3 145:1.0109954 144:1.0705811 
-0.3 68:1.0054629 
-0.195799496248243 71:1.132238 86:1.4117283 
-0.3 68:1.0054629 145:1.0109954 
-0.3 71:1.132238 86:1.4117283 
-0.2763148912182566 71:1.132238 86:1.4117283 
-0.3 145:2.0219908 
-0.3 273:1.0901766 145:1.0109954 
-0.3 27:1.0222764 
-0.3 273:1.0901766 145:1.0109954 
-0.3 3:1.0579919 86:1.4117283 71:1.132238 
-0.3 71:1.132238 
-0.03283928532940261 86:1.4117283 
-0.3 145:1.0109954 68:1.0054629 144:1.0705811 71:1.132238 
-0.1828906639863857 64:0.87778412 214:1.2498775 273:1.0901766 144:1.0705811 
-0.3 27:1.0222764 
-0.3 155:1.3716111 
-0.3 14:1.0457575 155:1.3716111 
-0.3 68:1.0054629 
-0.3 86:1.4117283 27:1.0222764 
-0.3 86:1.4117283 
-0.3 64:0.87778412 214:1.2498775 273:1.0901766 144:1.0705811 
-0.3 86:1.4117283 
-0.3 64:0.87778412 214:1.2498775 273:1.0901766 144:1.0705811 
-0.3 64:0.87778412 214:1.2498775 273:1.0901766 144:1.0705811 
-0.3 64:1.7555682 68:2.0109258 
-0.3 64:0.87778412 
-0.3 64:0.87778412 
-0.3 64:0.87778412 
-0.3 64:0.87778412 
-0.3 64:0.87778412 
-0.3 64:0.87778412 
-0.3 64:0.87778412 
-0.3 27:1.0222764 
-0.3 3:1.0579919 86:1.4117283 71:1.132238 
-0.3 145:1.0109954 68:1.0054629 144:1.0705811 71:1.132238 
-0.3 145:1.0109954 68:1.0054629 
-0.3 117:1.4117283 
-0.3 68:1.0054629 
-0.3 68:1.0054629 273:1.0901766 71:1.132238 27:1.0222764 
-0.3 71:2.264476 
-0.3 71:1.132238 68:1.0054629 
-0.3 2:1.1106983 
-0.3 155:1.3716111 
-0.3 117:1.4117283 
-0.3 273:1.0901766 68:1.0054629 
-0.3 144:1.0705811 
-0.3 86:1.4117283 2:1.1106983 
-0.3 273:1.0901766 145:1.0109954 27:1.0222764 
-0.3 71:1.132238 68:1.0054629 
-0.3 68:1.0054629 273:1.0901766 
-0.3 86:1.4117283 
-0.3 68:1.0054629 273:1.0901766 
-0.3 155:1.3716111 9:1.0054629 
-0.3 144:1.0705811 
-0.3 27:1.0222764 145:1.0109954 
-0.3 64:0.87778412 
-0.3 64:0.87778412 
-0.3 64:0.87778412 
-0.2697528714946489 64:0.87778412 
